~h "sil"
<BEGINHMM>
<NUMSTATES> 5
<STATE> 2
<MEAN> 39
 -6.545806e+000 2.663347e-001 1.022341e+001 -5.381759e+000 4.841956e+000 -9.972376e+000 4.646430e+000 -6.447086e+000 4.762498e+000 -6.535313e+000 5.698996e+000 -3.377290e+000 5.041431e+001 -1.378249e-002 2.473120e-002 -3.746221e-002 3.574519e-002 -8.151744e-003 -7.128343e-003 3.539765e-002 5.199958e-002 3.778751e-002 4.413229e-002 6.693751e-003 1.430377e-002 -8.874493e-002 -3.939621e-003 -3.881719e-003 3.599418e-003 -1.252858e-002 4.699092e-003 4.237152e-003 -1.047669e-002 -1.832301e-002 -2.489840e-003 -1.188999e-002 -5.065761e-003 -1.060108e-002 3.851657e-002
<VARIANCE> 39
 1.377923e+001 3.101669e+001 1.833136e+001 1.423538e+001 1.916505e+001 2.423155e+001 2.291815e+001 2.593979e+001 2.849937e+001 2.794081e+001 2.511815e+001 1.989639e+001 1.154700e+002 2.657204e-001 5.359244e-001 5.957800e-001 7.330751e-001 9.270584e-001 1.112780e+000 1.232706e+000 1.397566e+000 1.445304e+000 1.434933e+000 1.420014e+000 1.329028e+000 3.524504e-001 4.820455e-002 8.899819e-002 1.088284e-001 1.399786e-001 1.757834e-001 2.125692e-001 2.393006e-001 2.717757e-001 2.833611e-001 2.810405e-001 2.777423e-001 2.632413e-001 4.967444e-002
<GCONST> 8.778632e+001
<STATE> 3
<MEAN> 39
 -7.208706e+000 -2.210843e-001 7.499709e+000 -4.788366e+000 4.492195e+000 -7.920323e+000 3.938154e+000 -5.693700e+000 4.967608e+000 -5.199083e+000 4.990351e+000 -2.759165e+000 4.536069e+001 -2.009088e-001 -4.905734e-002 1.143236e-001 -1.207785e-001 1.102845e-001 -2.147823e-001 8.818340e-002 -1.075420e-001 1.799477e-001 -9.359428e-002 1.071819e-001 -1.084899e-001 9.682715e-001 3.741998e-002 -1.558491e-003 2.269705e-002 -1.288916e-002 -1.186772e-002 -9.114336e-003 -2.390125e-002 -1.231499e-002 -2.414207e-002 -1.054587e-002 -3.069505e-002 -1.446532e-002 -2.058829e-002
<VARIANCE> 39
 2.916355e+001 4.425238e+001 3.874371e+001 3.011419e+001 3.079006e+001 4.178851e+001 3.022590e+001 3.587037e+001 3.369016e+001 3.554951e+001 2.985250e+001 2.276122e+001 3.658515e+002 2.260449e+000 2.955104e+000 2.362672e+000 2.117039e+000 2.115890e+000 2.948897e+000 2.240044e+000 2.662016e+000 2.501985e+000 2.546516e+000 2.248813e+000 1.924095e+000 1.781221e+001 4.129103e-001 4.640901e-001 4.117547e-001 3.860733e-001 3.920215e-001 5.246696e-001 4.223465e-001 4.845981e-001 4.674151e-001 4.635070e-001 4.134068e-001 3.673236e-001 2.333645e+000
<GCONST> 1.236581e+002
<STATE> 4
<MEAN> 39
 -6.834495e+000 -7.985095e+000 5.999969e+000 -9.561740e+000 6.356068e+000 -1.077734e+001 3.650925e+000 -9.442275e+000 6.141340e+000 -7.208564e+000 4.207006e+000 -5.276823e+000 6.926364e+001 1.072448e-002 2.509720e-002 4.565415e-003 4.860969e-003 -7.304064e-003 2.514248e-003 -4.930899e-003 -1.696307e-004 -6.593714e-003 -1.545326e-003 -1.599345e-002 -4.719589e-003 -2.344586e-002 2.338451e-004 -9.299414e-004 -4.693299e-004 1.280289e-003 -2.672096e-003 2.497651e-003 -3.258226e-003 -4.132539e-003 -6.262346e-003 -3.142011e-003 -2.167518e-003 1.080679e-003 1.447758e-002
<VARIANCE> 39
 1.660360e+001 6.211392e+001 3.007752e+001 2.462834e+001 2.477427e+001 2.344889e+001 2.817597e+001 3.277496e+001 3.089754e+001 3.174400e+001 2.983927e+001 2.788430e+001 1.983457e+002 3.290952e-001 6.275262e-001 7.242715e-001 9.589196e-001 1.194497e+000 1.427659e+000 1.610182e+000 1.783561e+000 1.795148e+000 1.846417e+000 1.760010e+000 1.650014e+000 3.090290e-001 6.339278e-002 1.143653e-001 1.425475e-001 1.906664e-001 2.367028e-001 2.826329e-001 3.184320e-001 3.545960e-001 3.582373e-001 3.634514e-001 3.486578e-001 3.272063e-001 6.087488e-002
<GCONST> 9.762927e+001
<TRANSP> 5
 0.000000e+000 1.000000e+000 0.000000e+000 0.000000e+000 0.000000e+000
 0.000000e+000 9.358209e-001 6.417911e-002 0.000000e+000 0.000000e+000
 0.000000e+000 0.000000e+000 7.519017e-001 2.480982e-001 0.000000e+000
 0.000000e+000 0.000000e+000 0.000000e+000 9.501797e-001 4.982027e-002
 0.000000e+000 0.000000e+000 0.000000e+000 0.000000e+000 0.000000e+000
<ENDHMM>
~h "sp"
<BEGINHMM>
<NUMSTATES> 3
<STATE> 2
<MEAN> 39
 -7.208706e+000 -2.210843e-001 7.499709e+000 -4.788366e+000 4.492195e+000 -7.920323e+000 3.938154e+000 -5.693700e+000 4.967608e+000 -5.199083e+000 4.990351e+000 -2.759165e+000 4.536069e+001 -2.009088e-001 -4.905734e-002 1.143236e-001 -1.207785e-001 1.102845e-001 -2.147823e-001 8.818340e-002 -1.075420e-001 1.799477e-001 -9.359428e-002 1.071819e-001 -1.084899e-001 9.682715e-001 3.741998e-002 -1.558491e-003 2.269705e-002 -1.288916e-002 -1.186772e-002 -9.114336e-003 -2.390125e-002 -1.231499e-002 -2.414207e-002 -1.054587e-002 -3.069505e-002 -1.446532e-002 -2.058829e-002
<VARIANCE> 39
 2.916355e+001 4.425238e+001 3.874371e+001 3.011419e+001 3.079006e+001 4.178851e+001 3.022590e+001 3.587037e+001 3.369016e+001 3.554951e+001 2.985250e+001 2.276122e+001 3.658515e+002 2.260449e+000 2.955104e+000 2.362672e+000 2.117039e+000 2.115890e+000 2.948897e+000 2.240044e+000 2.662016e+000 2.501985e+000 2.546516e+000 2.248813e+000 1.924095e+000 1.781221e+001 4.129103e-001 4.640901e-001 4.117547e-001 3.860733e-001 3.920215e-001 5.246696e-001 4.223465e-001 4.845981e-001 4.674151e-001 4.635070e-001 4.134068e-001 3.673236e-001 2.333645e+000
<GCONST> 1.236581e+002
<TRANSP> 3
 0.000000e+000 1.000000e+000 0.000000e+000
 0.000000e+000 7.519017e-001 2.480982e-001
 0.000000e+000 0.000000e+000 0.000000e+000
<ENDHMM>
